Language model created by QuickLM on Mon Dec 23 21:12:09 EST 2013
Copyright (c) 1996-2010 Carnegie Mellon University and Alexander I. Rudnicky

The model is in standard ARPA format, designed by Doug Paul while he was at MITRE.

The code that was used to produce this language model is available in Open Source.
Please visit http://www.speech.cs.cmu.edu/tools/ for more information

The (fixed) discount mass is 0.5. The backoffs are computed using the ratio method.
This model based on a corpus of 14 sentences and 16 words

\data\
ngram 1=16
ngram 2=28
ngram 3=14

\1-grams:
-0.7782 </s> -0.3010
-0.7782 <s> -0.2218
-1.9243 BACKWARD -0.2218
-1.9243 CONTINUE -0.2218
-1.9243 DINING -0.2218
-1.9243 ENTRY -0.2218
-1.9243 FORWARD -0.2218
-1.9243 HALL -0.2218
-1.9243 HALT -0.2218
-1.9243 HOME -0.2218
-1.9243 KITCHEN -0.2218
-1.9243 LEFT -0.2218
-1.9243 LIVING -0.2218
-1.9243 PAUSE -0.2218
-1.9243 RIGHT -0.2218
-1.9243 STOP -0.2218

\2-grams:
-1.4472 <s> BACKWARD 0.0000
-1.4472 <s> CONTINUE 0.0000
-1.4472 <s> DINING 0.0000
-1.4472 <s> ENTRY 0.0000
-1.4472 <s> FORWARD 0.0000
-1.4472 <s> HALL 0.0000
-1.4472 <s> HALT 0.0000
-1.4472 <s> HOME 0.0000
-1.4472 <s> KITCHEN 0.0000
-1.4472 <s> LEFT 0.0000
-1.4472 <s> LIVING 0.0000
-1.4472 <s> PAUSE 0.0000
-1.4472 <s> RIGHT 0.0000
-1.4472 <s> STOP 0.0000
-0.3010 BACKWARD </s> -0.3010
-0.3010 CONTINUE </s> -0.3010
-0.3010 DINING </s> -0.3010
-0.3010 ENTRY </s> -0.3010
-0.3010 FORWARD </s> -0.3010
-0.3010 HALL </s> -0.3010
-0.3010 HALT </s> -0.3010
-0.3010 HOME </s> -0.3010
-0.3010 KITCHEN </s> -0.3010
-0.3010 LEFT </s> -0.3010
-0.3010 LIVING </s> -0.3010
-0.3010 PAUSE </s> -0.3010
-0.3010 RIGHT </s> -0.3010
-0.3010 STOP </s> -0.3010

\3-grams:
-0.3010 <s> BACKWARD </s>
-0.3010 <s> CONTINUE </s>
-0.3010 <s> DINING </s>
-0.3010 <s> ENTRY </s>
-0.3010 <s> FORWARD </s>
-0.3010 <s> HALL </s>
-0.3010 <s> HALT </s>
-0.3010 <s> HOME </s>
-0.3010 <s> KITCHEN </s>
-0.3010 <s> LEFT </s>
-0.3010 <s> LIVING </s>
-0.3010 <s> PAUSE </s>
-0.3010 <s> RIGHT </s>
-0.3010 <s> STOP </s>

\end\
